{"compounds": ["SOFT", "MEDIUM", "HARD"], "mean": [15.459518432617188, 31.50328254699707], "std": [10.65507698059082, 18.300926208496094], "layers": [{"w": [[0.9515591859817505, 0.9745107293128967, 0.450737327337265, 0.4007820785045624, 0.5579405426979065], [0.6595121622085571, 0.2149200588464737, 0.7466316819190979, 0.3578968048095703, -0.9023151993751526], [0.921518862247467, 0.687070906162262, 0.7451933026313782, 0.1128765270113945, 0.541969895362854], [0.4165354073047638, 0.9539898037910461, 0.7311421632766724, -0.4747132658958435, 0.07885034382343292], [0.3704962730407715, 0.5449800491333008, 0.36622440814971924, -0.034875690937042236, -0.6148540377616882], [-0.3528452217578888, -0.27481064200401306, -0.40766066312789917, 0.19164957106113434, -0.2931581139564514], [1.0141841173171997, 0.34264758229255676, 0.9069777727127075, 0.32731735706329346, 0.28474119305610657], [0.7751234769821167, 0.545143187046051, 0.7719257473945618, -0.4806688129901886, 0.26841235160827637], [0.9217433333396912, 0.7002730965614319, 0.7644453644752502, 0.557070791721344, 0.6098412275314331], [0.2652047574520111, 0.7751861810684204, 0.5860233902931213, 0.4165205955505371, -0.5863344073295593], [-0.44270050525665283, 0.5730702877044678, 0.16461017727851868, 0.4845382869243622, 0.4056386351585388], [0.7935243248939514, 0.741472601890564, 0.5496130585670471, 0.5762995481491089, -0.6336915493011475], [0.6616913676261902, 0.4210037887096405, 0.686051607131958, -0.09791500121355057, 0.7048270106315613], [0.4182921350002289, 0.8743239045143127, 0.43974459171295166, -0.3250851035118103, -0.2094808667898178], [0.8765215277671814, 0.49075955152511597, 1.1247256994247437, -0.2847151756286621, -0.5015654563903809], [-0.34988370537757874, 0.21268972754478455, 0.5821707844734192, 0.13862566649913788, 0.5807679891586304], [-0.2309524416923523, -0.3048707842826843, 0.15469402074813843, -0.16771270334720612, 0.2707452178001404], [0.5082559585571289, 0.8658742904663086, 0.3448771834373474, -0.5285151600837708, 0.06579811125993729], [0.7065649032592773, 0.4700022339820862, 0.8227792978286743, 0.5309769511222839, -0.6191399097442627], [0.3613625168800354, 0.9428361058235168, 0.5778887271881104, -0.37800151109695435, -0.6424964070320129], [-0.35045596957206726, 0.5032433867454529, 0.3201078772544861, -0.5158865451812744, 0.2596960961818695], [0.3013034462928772, 0.19377382099628448, 0.5630027651786804, -0.4846622943878174, -0.35006919503211975], [1.0606003999710083, 0.6894034743309021, 0.9266126751899719, -0.5035050511360168, -0.30580440163612366], [0.3633958101272583, 0.5743756294250488, 0.266655832529068, -0.322417676448822, -0.33771681785583496], [0.4902780055999756, 0.2876961827278137, 0.6000637412071228, -0.36292555928230286, -0.30599334836006165], [0.4892696738243103, 0.6067242622375488, 0.24872928857803345, 0.576790452003479, 0.31499817967414856], [1.0159412622451782, 0.8353633284568787, 0.2271503508090973, 0.4789133667945862, 0.3138396143913269], [-0.1714286208152771, -0.37121880054473877, -0.4446021616458893, 0.12795257568359375, -0.09769105911254883], [0.7858024835586548, 0.19245265424251556, 1.0638023614883423, -0.5012317895889282, -0.24439407885074615], [0.700986921787262, 0.8176308274269104, 0.9031050205230713, 0.5066356658935547, -0.6229845285415649], [0.0006161622004583478, 0.12382166087627411, 0.3800446689128876, -1.091627836227417, 1.1598414182662964], [0.0965484008193016, 0.7674146294593811, 0.7005098462104797, 0.4978773295879364, -0.4017687141895294]], "b": [0.9826555848121643, 0.571604311466217, 0.5387254357337952, 0.27513012290000916, 0.7765597105026245, -0.2149878442287445, 0.4422711730003357, 0.8226332068443298, 0.7600203156471252, 0.26386454701423645, 0.38881683349609375, 0.5513389706611633, 0.8585598468780518, 0.4815368056297302, 0.28805628418922424, 0.30940499901771545, -0.41668981313705444, 0.8123993873596191, 0.9132527709007263, 0.20868746936321259, 0.4837292432785034, 0.93016517162323, 0.783283531665802, 0.42649880051612854, 0.7798616886138916, 0.8993512988090515, 0.811744749546051, -0.07858499884605408, 0.5450782775878906, 0.6094223856925964, 0.305763304233551, 0.39277440309524536]}, {"w": [[0.0026454974431544542, 0.04082748666405678, -0.1165655329823494, -0.11473625898361206, -0.11524921655654907, -0.10139276832342148, -0.07592985779047012, -0.05690886825323105, -0.26360297203063965, -0.18277300894260406, 0.06242642551660538, -0.0525975376367569, -0.11358219385147095, -0.2056891769170761, -0.2044781893491745, -0.2518503665924072, -0.05762255936861038, -0.03765009343624115, 0.0005150688230060041, -0.024557003751397133, -0.24224069714546204, -0.20657889544963837, -0.13388143479824066, 0.08173064887523651, -0.07241953909397125, -0.16004912555217743, -0.04439694061875343, -0.0673309788107872, -0.22061683237552643, 0.015557803213596344, -0.1559840887784958, -0.15317946672439575], [-0.17585821449756622, 0.11831144988536835, 0.13393215835094452, 0.06442594528198242, -0.12326182425022125, -0.17446796596050262, -0.1435743123292923, 0.13182242214679718, 0.08487151563167572, 0.14875836670398712, 0.09260798990726471, 0.04474079608917236, -0.0017311125993728638, -0.13443973660469055, -0.15145735442638397, -0.1653478443622589, 0.0723656564950943, -0.08679169416427612, -0.03557676076889038, -0.1017359122633934, -0.03221288323402405, -0.1244216039776802, -0.11550866067409515, 0.058638736605644226, -0.05253739655017853, 0.10913188755512238, -0.05671150982379913, -0.12967759370803833, -0.031190291047096252, -0.08569204062223434, -0.054083339869976044, -0.1682906299829483], [0.6693177223205566, 0.39736077189445496, 0.6679818630218506, 0.6023000478744507, 0.6521775126457214, 0.023810748010873795, 0.6588411331176758, 0.48655253648757935, 0.6104477643966675, 0.6673962473869324, 0.3719623386859894, 0.5163803100585938, 0.549020528793335, 0.2951335310935974, 0.5515480041503906, 0.292741060256958, 0.17320896685123444, 0.6912755966186523, 0.6974453330039978, 0.34116116166114807, 0.4082919657230377, 0.50831139087677, 0.6070755124092102, 0.2007264345884323, 0.4747714698314667, 0.4498857855796814, 0.5533459186553955, -0.08701187372207642, 0.449081689119339, 0.47156134247779846, 0.5456348657608032, 0.668485701084137], [0.7093328237533569, 0.4902077615261078, 0.552796483039856, 0.45445361733436584, 0.3665775954723358, -0.016232971101999283, 0.596747875213623, 0.4622434079647064, 0.42429259419441223, 0.49217864871025085, 0.34299060702323914, 0.4605458974838257, 0.5890471935272217, 0.40814611315727234, 0.4056105613708496, 0.37926730513572693, -0.0812629982829094, 0.704590916633606, 0.4527144730091095, 0.43688786029815674, 0.48097115755081177, 0.4849255084991455, 0.6711201667785645, 0.4660892188549042, 0.35941123962402344, 0.6233392357826233, 0.7346852421760559, 0.04650700092315674, 0.6401777863502502, 0.6963394284248352, 0.6796202063560486, 0.5623578429222107], [-0.12286600470542908, -0.03642962872982025, 0.13091795146465302, 0.09062384068965912, -0.11186234652996063, -0.14175458252429962, -0.12080277502536774, -0.17445696890354156, -0.1364077925682068, -0.043716415762901306, 0.11930255591869354, 0.029589280486106873, -0.1344573199748993, -0.14181450009346008, 0.08794201910495758, -0.13149380683898926, -0.021766066551208496, 0.0848008543252945, -0.08181438595056534, -0.019275709986686707, -0.015387430787086487, -0.041822418570518494, -0.08963146805763245, -0.1575855314731598, -0.14289867877960205, -0.09465714544057846, 0.1707376092672348, -0.08538573980331421, -0.11871049553155899, 0.042849645018577576, 0.04872147738933563, 0.09685768187046051], [0.7053472995758057, 0.6190491318702698, 0.40445876121520996, 0.5373007655143738, 0.6329559087753296, 0.143907830119133, 0.42736342549324036, 0.7395094037055969, 0.47894781827926636, 0.40043917298316956, 0.23710745573043823, 0.5256072878837585, 0.6683007478713989, 0.48160645365715027, 0.5017451047897339, 0.33473166823387146, -0.10147271305322647, 0.5622091889381409, 0.6919160485267639, 0.4840981960296631, 0.45197612047195435, 0.44529974460601807, 0.379238098859787, 0.29063549637794495, 0.547200620174408, 0.6519954204559326, 0.7152368426322937, -0.1622997522354126, 0.6393716335296631, 0.40336889028549194, 0.7804145812988281, 0.6728516221046448], [0.5711501836776733, 0.6795798540115356, 0.43021732568740845, 0.44762563705444336, 0.6226398348808289, 0.10991967469453812, 0.489566832780838, 0.4952182471752167, 0.6660193204879761, 0.582412838935852, 0.4522481858730316, 0.41377031803131104, 0.44076791405677795, 0.4453209936618805, 0.5019667744636536, 0.3876309394836426, 0.0018259482458233833, 0.6720913648605347, 0.5408387780189514, 0.36108464002609253, 0.5156713724136353, 0.27624621987342834, 0.324991911649704, 0.2601616382598877, 0.4096052050590515, 0.6100100874900818, 0.5131685137748718, -0.06915894895792007, 0.6697256565093994, 0.5861762166023254, 0.841515839099884, 0.43010982871055603], [-0.1410592496395111, 0.0016589962178841233, -0.18279847502708435, -0.19302354753017426, -0.08318658918142319, -0.14302214980125427, -0.20201364159584045, 0.034339774399995804, 0.07879187911748886, -0.04168513044714928, -0.09083418548107147, -0.2340349555015564, -0.13315339386463165, -0.03329400718212128, 0.004649042151868343, -0.08385500311851501, -0.12994368374347687, 0.020629705861210823, -0.2099352478981018, 0.030980795621871948, -0.14511001110076904, -0.07833220064640045, -0.11368099600076675, -0.058364298194646835, -0.13127455115318298, 0.06488664448261261, -0.07600989192724228, 0.137991800904274, 0.09287610650062561, -0.1545008271932602, -0.20238752663135529, 0.0670945942401886], [0.02930452674627304, -0.23876342177391052, -0.12431562691926956, -0.2954482436180115, -0.2578263580799103, -0.075752392411232, -0.06635512411594391, -0.07659699767827988, -0.1461317539215088, 0.061630360782146454, -0.034779585897922516, -0.2155417501926422, -0.12941326200962067, -0.07184470444917679, -0.053615689277648926, -0.2082158923149109, 0.006199433468282223, -0.20733746886253357, -0.26207950711250305, -0.21416296064853668, 0.05590304359793663, 0.03020973689854145, 0.03942243754863739, -0.010743540711700916, 0.018663261085748672, -0.11430437117815018, -0.2036951333284378, 0.08832763135433197, -0.21332977712154388, -0.233220636844635, -0.17068465054035187, -0.07055892795324326], [0.030948951840400696, -0.12871664762496948, -0.1640998125076294, -0.03620848059654236, -0.16425305604934692, -0.11509248614311218, 0.032090168446302414, -0.08975077420473099, 0.10148085653781891, 0.17196528613567352, -0.007180183660238981, 0.0007839896134100854, -0.01934627816081047, 0.002768471837043762, -0.012857407331466675, -0.057625409215688705, 0.06601279973983765, 0.10430681705474854, -0.10586830228567123, -0.07472629845142365, -0.1028638705611229, -0.08540511131286621, 0.030058875679969788, 0.13195468485355377, 0.13823537528514862, 0.021107608452439308, -0.19015055894851685, -0.09487689286470413, -0.03883986175060272, -0.09263923019170761, -0.0455155074596405, -0.16227596998214722], [0.6183258891105652, 0.38392555713653564, 0.4613495469093323, 0.37888050079345703, 0.6803141832351685, -0.012554062530398369, 0.665550947189331, 0.5549023151397705, 0.5206906199455261, 0.6157858967781067, 0.3846551775932312, 0.629042387008667, 0.7132338881492615, 0.2916322946548462, 0.5341674089431763, 0.49762430787086487, 0.10075133293867111, 0.5828930735588074, 0.5736172795295715, 0.3038572669029236, 0.5212771892547607, 0.6385320425033569, 0.6259138584136963, 0.37655866146087646, 0.3463956117630005, 0.5636041760444641, 0.44726812839508057, 0.1437533050775528, 0.4148429036140442, 0.5109869241714478, 0.6690085530281067, 0.5567899346351624], [0.021296514198184013, -0.10829569399356842, -0.03447605296969414, -0.05275655910372734, 0.03523540869355202, -0.14578869938850403, -0.17543506622314453, -0.042536500841379166, -0.18881641328334808, -0.026826579123735428, -0.15029282867908478, -0.24093472957611084, -0.08336241543292999, -0.09685955941677094, -0.015130276791751385, 0.04986082762479782, 0.12069128453731537, -0.010936054401099682, -0.11752066016197205, -0.24901509284973145, -0.2796761095523834, -0.22073329985141754, -0.28345295786857605, -0.16943013668060303, -0.2622469663619995, -0.29998844861984253, -0.25542151927948, -0.17427244782447815, -0.22941656410694122, -0.05862351506948471, -0.018523002043366432, -0.1744215339422226], [-0.12833066284656525, 0.018791180104017258, -0.1675548553466797, -0.1504525989294052, 0.04846927896142006, -0.2140808254480362, -0.05706661567091942, 0.07658957690000534, -0.048951830714941025, -0.011981752701103687, -0.17159795761108398, -0.06970616430044174, -0.07289411127567291, -0.02050287090241909, -0.007586468011140823, 0.07435788214206696, -0.19498810172080994, -0.06205875799059868, -0.16729991137981415, -0.1998966634273529, -0.09116806834936142, -0.23367655277252197, 0.04536886885762215, -0.03958167880773544, -0.1721266806125641, 0.016494039446115494, -0.23574009537696838, -0.06837708503007889, -0.1163327544927597, -0.2276621013879776, -0.18832790851593018, -0.08890827000141144], [0.6999862790107727, 0.6897439360618591, 0.6932775974273682, 0.3653392195701599, 0.4036100506782532, 0.32483795285224915, 0.5896943807601929, 0.5722509026527405, 0.5665922164916992, 0.35468778014183044, 0.33962249755859375, 0.6840506196022034, 0.5393463373184204, 0.39987727999687195, 0.30396586656570435, 0.3692529797554016, 0.04768379405140877, 0.403371125459671, 0.5041486620903015, 0.4127574563026428, 0.3553889989852905, 0.49568960070610046, 0.3736000061035156, 0.24589891731739044, 0.5671651363372803, 0.6957309246063232, 0.5155448913574219, -0.0725790411233902, 0.3374103605747223, 0.4328877329826355, 0.5079472064971924, 0.47509291768074036], [0.597811758518219, 0.3484276533126831, 0.7304890751838684, 0.6180757284164429, 0.32972636818885803, 0.03630485385656357, 0.5787333250045776, 0.5256723761558533, 0.5207971930503845, 0.36976876854896545, 0.543165922164917, 0.4060882031917572, 0.726426899433136, 0.4093930721282959, 0.4743387699127197, 0.6061695218086243, 0.022165806964039803, 0.44255122542381287, 0.4920772314071655, 0.475008100271225, 0.4202912151813507, 0.47060704231262207, 0.30469590425491333, 0.4188491106033325, 0.5528965592384338, 0.5588200688362122, 0.634739339351654, 0.00019882619380950928, 0.5938345193862915, 0.37849947810173035, 0.6807767748832703, 0.5670522451400757], [0.7369692921638489, 0.6084728240966797, 0.4448464512825012, 0.6579607725143433, 0.4867130517959595, 0.11610954254865646, 0.37079575657844543, 0.531017005443573, 0.6651109457015991, 0.5309550166130066, 0.29973164200782776, 0.5723773241043091, 0.5259026288986206, 0.607632577419281, 0.3132399320602417, 0.40911638736724854, -0.10809783637523651, 0.4854176640510559, 0.579137921333313, 0.5611426830291748, 0.5767752528190613, 0.6443116068840027, 0.540768563747406, 0.48761042952537537, 0.6544452905654907, 0.7033740878105164, 0.46798890829086304, 0.1625267118215561, 0.6280907392501831, 0.4395596981048584, 0.6217280626296997, 0.3774522840976715]], "b": [-0.061296768486499786, -0.14328621327877045, 0.6232128143310547, 0.5849162936210632, -0.15358397364616394, 0.5981994271278381, 0.5340138673782349, 0.009775645099580288, -0.012547392398118973, -0.23579667508602142, 0.6945475339889526, 0.003413363127037883, -0.00947529450058937, 0.38347452878952026, 0.47488200664520264, 0.47716274857521057]}, {"w": [[0.04096547141671181, 0.1409807801246643, 0.6179990768432617, 0.7221726775169373, -0.09363079071044922, 0.6145705580711365, 0.6076174974441528, -0.141408309340477, -0.14382360875606537, -0.0696672648191452, 0.6992602348327637, -0.10986117273569107, -0.1482066959142685, 0.6581194996833801, 0.6444713473320007, 0.7282214760780334]], "b": [0.2711249887943268]}]}